<?xml version="1.0"?>
<opencv_storage>
<cascade>
  <stageType>BOOST</stageType>
  <featureType>HAAR</featureType>
  <height>24</height>
  <width>24</width>
  <stageParams>
    <boostType>GAB</boostType>
    <minHitRate>9.9900001287460327e-01</minHitRate>
    <maxFalseAlarm>5.0000000000000000e-01</maxFalseAlarm>
    <weightTrimRate>9.4999999999999996e-01</weightTrimRate>
    <maxDepth>1</maxDepth>
    <maxWeakCount>100</maxWeakCount></stageParams>
  <featureParams>
    <maxCatCount>0</maxCatCount>
    <featSize>1</featSize>
    <mode>ALL</mode></featureParams>
  <stageNum>10</stageNum>
  <stages>
    <!-- stage 0 -->
    <_>
      <maxWeakCount>7</maxWeakCount>
      <stageThreshold>-7.1852517127990723e-01</stageThreshold>
      <weakClassifiers>
        <_>
          <internalNodes>
            0 -1 42 1.4324365183711052e-03</internalNodes>
          <leafValues>
            8.4090906381607056e-01 -6.1111110448837280e-01</leafValues></_>
        <_>
          <internalNodes>
            0 -1 44 -4.4507578015327454e-02</internalNodes>
          <leafValues>
            -8.5291010141372681e-01 6.2583541870117188e-01</leafValues></_>
        <_>
          <internalNodes>
            0 -1 50 -7.4518378823995590e-04</internalNodes>
          <leafValues>
            -8.9797139167785645e-01 4.3116027116775513e-01</leafValues></_>
        <_>
          <internalNodes>
            0 -1 37 9.5216203480958939e-03</internalNodes>
          <leafValues>
            3.2967796921730042e-01 -9.1329228878021240e-01</leafValues></_>
        <_>
          <internalNodes>
            0 -1 15 1.3803212903439999e-02</internalNodes>
          <leafValues>
            2.9516756534576416e-01 -8.0679619312286377e-01</leafValues></_>
        <_>
          <internalNodes>
            0 -1 62 2.9592085047625005e-04</internalNodes>
          <leafValues>
            3.8211470842361450e-01 -7.4031823873519897e-01</leafValues></_>
        <_>
          <internalNodes>
            0 -1 57 9.5609556883573532e-03</internalNodes>
          <leafValues>
            2.8019464015960693e-01 -9.2608672380447388e-01</leafValues></_></weakClassifiers></_>
    <!-- stage 1 -->
    <_>
      <maxWeakCount>5</maxWeakCount>
      <stageThreshold>-9.6076828241348267e-01</stageThreshold>
      <weakClassifiers>
        <_>
          <internalNodes>
            0 -1 46 2.7487423270940781e-02</internalNodes>
          <leafValues>
            8.4473198652267456e-01 -9.6610170602798462e-01</leafValues></_>
        <_>
          <internalNodes>
            0 -1 18 4.7579832607880235e-04</internalNodes>
          <leafValues>
            6.4386278390884399e-01 -8.6959028244018555e-01</leafValues></_>
        <_>
          <internalNodes>
            0 -1 55 -7.6518312562257051e-04</internalNodes>
          <leafValues>
            -7.4289530515670776e-01 6.3259190320968628e-01</leafValues></_>
        <_>
          <internalNodes>
            0 -1 24 -8.0246472498401999e-04</internalNodes>
          <leafValues>
            -7.5038826465606689e-01 4.9576559662818909e-01</leafValues></_>
        <_>
          <internalNodes>
            0 -1 39 5.3989177104085684e-04</internalNodes>
          <leafValues>
            4.4716790318489075e-01 -8.1811362504959106e-01</leafValues></_></weakClassifiers></_>
    <!-- stage 2 -->
    <_>
      <maxWeakCount>4</maxWeakCount>
      <stageThreshold>-2.0727455615997314e-01</stageThreshold>
      <weakClassifiers>
        <_>
          <internalNodes>
            0 -1 7 -3.5141676664352417e-02</internalNodes>
          <leafValues>
            -9.0909093618392944e-01 7.9136693477630615e-01</leafValues></_>
        <_>
          <internalNodes>
            0 -1 23 3.5728920251131058e-02</internalNodes>
          <leafValues>
            6.7289763689041138e-01 -8.8775128126144409e-01</leafValues></_>
        <_>
          <internalNodes>
            0 -1 40 -1.6193450428545475e-03</internalNodes>
          <leafValues>
            -8.2425278425216675e-01 3.8853204250335693e-01</leafValues></_>
        <_>
          <internalNodes>
            0 -1 5 -3.8723152829334140e-04</internalNodes>
          <leafValues>
            -8.4728634357452393e-01 3.7993904948234558e-01</leafValues></_></weakClassifiers></_>
    <!-- stage 3 -->
    <_>
      <maxWeakCount>5</maxWeakCount>
      <stageThreshold>-9.7649908065795898e-01</stageThreshold>
      <weakClassifiers>
        <_>
          <internalNodes>
            0 -1 20 5.2602635696530342e-04</internalNodes>
          <leafValues>
            8.2803738117218018e-01 -6.6153848171234131e-01</leafValues></_>
        <_>
          <internalNodes>
            0 -1 12 5.8669978752732277e-03</internalNodes>
          <leafValues>
            7.1268093585968018e-01 -7.4977236986160278e-01</leafValues></_>
        <_>
          <internalNodes>
            0 -1 11 3.5952829057350755e-04</internalNodes>
          <leafValues>
            5.1025873422622681e-01 -6.7352283000946045e-01</leafValues></_>
        <_>
          <internalNodes>
            0 -1 56 3.2514133490622044e-03</internalNodes>
          <leafValues>
            3.5646691918373108e-01 -8.1728804111480713e-01</leafValues></_>
        <_>
          <internalNodes>
            0 -1 51 -2.2184701811056584e-04</internalNodes>
          <leafValues>
            -7.4773478507995605e-01 3.7980195879936218e-01</leafValues></_></weakClassifiers></_>
    <!-- stage 4 -->
    <_>
      <maxWeakCount>7</maxWeakCount>
      <stageThreshold>-6.1501556634902954e-01</stageThreshold>
      <weakClassifiers>
        <_>
          <internalNodes>
            0 -1 49 -1.3934243470430374e-02</internalNodes>
          <leafValues>
            -7.0370370149612427e-01 8.0219781398773193e-01</leafValues></_>
        <_>
          <internalNodes>
            0 -1 25 4.1953492909669876e-03</internalNodes>
          <leafValues>
            5.4994356632232666e-01 -7.9153263568878174e-01</leafValues></_>
        <_>
          <internalNodes>
            0 -1 30 2.4586698040366173e-02</internalNodes>
          <leafValues>
            4.4061318039894104e-01 -7.4137717485427856e-01</leafValues></_>
        <_>
          <internalNodes>
            0 -1 4 -8.8183030486106873e-02</internalNodes>
          <leafValues>
            -8.5856413841247559e-01 3.0127400159835815e-01</leafValues></_>
        <_>
          <internalNodes>
            0 -1 16 6.9949496537446976e-04</internalNodes>
          <leafValues>
            2.9130351543426514e-01 -8.3207386732101440e-01</leafValues></_>
        <_>
          <internalNodes>
            0 -1 43 5.7560420827940106e-04</internalNodes>
          <leafValues>
            2.6490876078605652e-01 -8.5162663459777832e-01</leafValues></_>
        <_>
          <internalNodes>
            0 -1 2 2.7737207710742950e-04</internalNodes>
          <leafValues>
            3.1613257527351379e-01 -7.3407453298568726e-01</leafValues></_></weakClassifiers></_>
    <!-- stage 5 -->
    <_>
      <maxWeakCount>5</maxWeakCount>
      <stageThreshold>-4.6556845307350159e-01</stageThreshold>
      <weakClassifiers>
        <_>
          <internalNodes>
            0 -1 38 -1.1991483625024557e-03</internalNodes>
          <leafValues>
            -8.7500000000000000e-01 8.0072462558746338e-01</leafValues></_>
        <_>
          <internalNodes>
            0 -1 29 -2.0266202045604587e-04</internalNodes>
          <leafValues>
            -7.3731291294097900e-01 6.2167960405349731e-01</leafValues></_>
        <_>
          <internalNodes>
            0 -1 48 -1.4220732264220715e-03</internalNodes>
          <leafValues>
            -8.2293087244033813e-01 3.7963649630546570e-01</leafValues></_>
        <_>
          <internalNodes>
            0 -1 31 1.6123920679092407e-02</internalNodes>
          <leafValues>
            2.8180712461471558e-01 -8.7709170579910278e-01</leafValues></_>
        <_>
          <internalNodes>
            0 -1 32 7.4144417885690928e-04</internalNodes>
          <leafValues>
            2.4234521389007568e-01 -8.7369167804718018e-01</leafValues></_></weakClassifiers></_>
    <!-- stage 6 -->
    <_>
      <maxWeakCount>8</maxWeakCount>
      <stageThreshold>-5.8644765615463257e-01</stageThreshold>
      <weakClassifiers>
        <_>
          <internalNodes>
            0 -1 6 2.2265318781137466e-02</internalNodes>
          <leafValues>
            8.4158414602279663e-01 -2.6315790414810181e-01</leafValues></_>
        <_>
          <internalNodes>
            0 -1 17 -7.0462757721543312e-03</internalNodes>
          <leafValues>
            -7.8749889135360718e-01 5.6342715024948120e-01</leafValues></_>
        <_>
          <internalNodes>
            0 -1 14 -1.7982636927627027e-04</internalNodes>
          <leafValues>
            -7.9253947734832764e-01 3.5438928008079529e-01</leafValues></_>
        <_>
          <internalNodes>
            0 -1 26 -3.2902194652706385e-04</internalNodes>
          <leafValues>
            -7.3024028539657593e-01 3.3848521113395691e-01</leafValues></_>
        <_>
          <internalNodes>
            0 -1 52 1.2163398787379265e-03</internalNodes>
          <leafValues>
            3.8676828145980835e-01 -5.9080272912979126e-01</leafValues></_>
        <_>
          <internalNodes>
            0 -1 13 -9.1696903109550476e-04</internalNodes>
          <leafValues>
            -8.1559640169143677e-01 3.3816474676132202e-01</leafValues></_>
        <_>
          <internalNodes>
            0 -1 0 -1.6813796013593674e-02</internalNodes>
          <leafValues>
            9.7629666328430176e-01 -2.8499844670295715e-01</leafValues></_>
        <_>
          <internalNodes>
            0 -1 53 -1.7217968124896288e-03</internalNodes>
          <leafValues>
            -9.4008326530456543e-01 2.8116393089294434e-01</leafValues></_></weakClassifiers></_>
    <!-- stage 7 -->
    <_>
      <maxWeakCount>6</maxWeakCount>
      <stageThreshold>-6.1221152544021606e-01</stageThreshold>
      <weakClassifiers>
        <_>
          <internalNodes>
            0 -1 45 1.7489409074187279e-02</internalNodes>
          <leafValues>
            8.0219781398773193e-01 -7.0370370149612427e-01</leafValues></_>
        <_>
          <internalNodes>
            0 -1 61 -2.4224584922194481e-02</internalNodes>
          <leafValues>
            -7.6761937141418457e-01 5.2105009555816650e-01</leafValues></_>
        <_>
          <internalNodes>
            0 -1 54 5.8550876565277576e-04</internalNodes>
          <leafValues>
            3.5836401581764221e-01 -7.2847789525985718e-01</leafValues></_>
        <_>
          <internalNodes>
            0 -1 60 6.0845175758004189e-03</internalNodes>
          <leafValues>
            5.0810867547988892e-01 -4.9665704369544983e-01</leafValues></_>
        <_>
          <internalNodes>
            0 -1 9 5.8142479974776506e-04</internalNodes>
          <leafValues>
            2.8144338726997375e-01 -8.1794720888137817e-01</leafValues></_>
        <_>
          <internalNodes>
            0 -1 41 2.0209093054290861e-04</internalNodes>
          <leafValues>
            2.5540927052497864e-01 -7.8994029760360718e-01</leafValues></_></weakClassifiers></_>
    <!-- stage 8 -->
    <_>
      <maxWeakCount>9</maxWeakCount>
      <stageThreshold>-7.3032099008560181e-01</stageThreshold>
      <weakClassifiers>
        <_>
          <internalNodes>
            0 -1 19 -2.3899375810287893e-04</internalNodes>
          <leafValues>
            -4.7368422150611877e-01 7.8637200593948364e-01</leafValues></_>
        <_>
          <internalNodes>
            0 -1 8 -7.5930054299533367e-04</internalNodes>
          <leafValues>
            -6.3280683755874634e-01 4.9740439653396606e-01</leafValues></_>
        <_>
          <internalNodes>
            0 -1 63 3.7941522896289825e-04</internalNodes>
          <leafValues>
            3.5088172554969788e-01 -6.8333601951599121e-01</leafValues></_>
        <_>
          <internalNodes>
            0 -1 33 6.1804195865988731e-04</internalNodes>
          <leafValues>
            2.9279330372810364e-01 -7.8808736801147461e-01</leafValues></_>
        <_>
          <internalNodes>
            0 -1 22 -5.5546476505696774e-04</internalNodes>
          <leafValues>
            -7.4559128284454346e-01 2.7601385116577148e-01</leafValues></_>
        <_>
          <internalNodes>
            0 -1 3 1.7310835421085358e-01</internalNodes>
          <leafValues>
            2.5027424097061157e-01 -7.8070992231369019e-01</leafValues></_>
        <_>
          <internalNodes>
            0 -1 27 -5.0219848752021790e-02</internalNodes>
          <leafValues>
            -6.9904816150665283e-01 3.2253876328468323e-01</leafValues></_>
        <_>
          <internalNodes>
            0 -1 21 4.4864933937788010e-02</internalNodes>
          <leafValues>
            2.7459776401519775e-01 -6.6306942701339722e-01</leafValues></_>
        <_>
          <internalNodes>
            0 -1 36 5.1613163668662310e-04</internalNodes>
          <leafValues>
            3.0255272984504700e-01 -6.2570172548294067e-01</leafValues></_></weakClassifiers></_>
    <!-- stage 9 -->
    <_>
      <maxWeakCount>8</maxWeakCount>
      <stageThreshold>1.2032384052872658e-02</stageThreshold>
      <weakClassifiers>
        <_>
          <internalNodes>
            0 -1 59 2.8351781656965613e-04</internalNodes>
          <leafValues>
            7.9143387079238892e-01 -3.9682540297508240e-01</leafValues></_>
        <_>
          <internalNodes>
            0 -1 47 1.1563433799892664e-03</internalNodes>
          <leafValues>
            5.1317393779754639e-01 -5.5757129192352295e-01</leafValues></_>
        <_>
          <internalNodes>
            0 -1 1 4.0512037277221680e-01</internalNodes>
          <leafValues>
            3.4909638762474060e-01 -7.3181056976318359e-01</leafValues></_>
        <_>
          <internalNodes>
            0 -1 28 -1.6855336725711823e-02</internalNodes>
          <leafValues>
            -8.3487367630004883e-01 2.5292912125587463e-01</leafValues></_>
        <_>
          <internalNodes>
            0 -1 35 4.3614865280687809e-03</internalNodes>
          <leafValues>
            -3.0604788661003113e-01 8.4473001956939697e-01</leafValues></_>
        <_>
          <internalNodes>
            0 -1 34 -3.6755553446710110e-04</internalNodes>
          <leafValues>
            -8.7112396955490112e-01 2.3965519666671753e-01</leafValues></_>
        <_>
          <internalNodes>
            0 -1 10 5.2230560686439276e-04</internalNodes>
          <leafValues>
            2.5039455294609070e-01 -7.4879413843154907e-01</leafValues></_>
        <_>
          <internalNodes>
            0 -1 58 -1.8296194321010262e-04</internalNodes>
          <leafValues>
            -8.7200307846069336e-01 1.9056342542171478e-01</leafValues></_></weakClassifiers></_></stages>
  <features>
    <_>
      <rects>
        <_>
          0 0 10 6 -1.</_>
        <_>
          0 0 5 3 2.</_>
        <_>
          5 3 5 3 2.</_></rects>
      <tilted>0</tilted></_>
    <_>
      <rects>
        <_>
          0 3 24 21 -1.</_>
        <_>
          8 10 8 7 9.</_></rects>
      <tilted>0</tilted></_>
    <_>
      <rects>
        <_>
          1 10 1 4 -1.</_>
        <_>
          1 11 1 2 2.</_></rects>
      <tilted>0</tilted></_>
    <_>
      <rects>
        <_>
          2 3 21 18 -1.</_>
        <_>
          2 9 21 6 3.</_></rects>
      <tilted>0</tilted></_>
    <_>
      <rects>
        <_>
          2 5 18 12 -1.</_>
        <_>
          8 9 6 4 9.</_></rects>
      <tilted>0</tilted></_>
    <_>
      <rects>
        <_>
          4 7 2 3 -1.</_>
        <_>
          5 7 1 3 2.</_></rects>
      <tilted>0</tilted></_>
    <_>
      <rects>
        <_>
          5 8 12 9 -1.</_>
        <_>
          9 11 4 3 9.</_></rects>
      <tilted>0</tilted></_>
    <_>
      <rects>
        <_>
          5 8 13 9 -1.</_>
        <_>
          5 11 13 3 3.</_></rects>
      <tilted>0</tilted></_>
    <_>
      <rects>
        <_>
          5 10 2 2 -1.</_>
        <_>
          5 10 1 2 2.</_></rects>
      <tilted>1</tilted></_>
    <_>
      <rects>
        <_>
          5 11 2 2 -1.</_>
        <_>
          5 11 1 2 2.</_></rects>
      <tilted>1</tilted></_>
    <_>
      <rects>
        <_>
          5 13 1 2 -1.</_>
        <_>
          5 13 1 1 2.</_></rects>
      <tilted>1</tilted></_>
    <_>
      <rects>
        <_>
          5 16 6 1 -1.</_>
        <_>
          7 16 2 1 3.</_></rects>
      <tilted>0</tilted></_>
    <_>
      <rects>
        <_>
          6 12 9 3 -1.</_>
        <_>
          9 13 3 1 9.</_></rects>
      <tilted>0</tilted></_>
    <_>
      <rects>
        <_>
          6 13 6 2 -1.</_>
        <_>
          8 13 2 2 3.</_></rects>
      <tilted>0</tilted></_>
    <_>
      <rects>
        <_>
          6 15 3 1 -1.</_>
        <_>
          7 15 1 1 3.</_></rects>
      <tilted>0</tilted></_>
    <_>
      <rects>
        <_>
          7 6 6 8 -1.</_>
        <_>
          7 10 6 4 2.</_></rects>
      <tilted>0</tilted></_>
    <_>
      <rects>
        <_>
          7 9 1 6 -1.</_>
        <_>
          7 11 1 2 3.</_></rects>
      <tilted>0</tilted></_>
    <_>
      <rects>
        <_>
          7 9 12 4 -1.</_>
        <_>
          10 9 6 4 2.</_></rects>
      <tilted>0</tilted></_>
    <_>
      <rects>
        <_>
          7 13 1 2 -1.</_>
        <_>
          7 13 1 1 2.</_></rects>
      <tilted>1</tilted></_>
    <_>
      <rects>
        <_>
          7 14 4 1 -1.</_>
        <_>
          8 14 2 1 2.</_></rects>
      <tilted>0</tilted></_>
    <_>
      <rects>
        <_>
          7 14 2 1 -1.</_>
        <_>
          7 14 1 1 2.</_></rects>
      <tilted>1</tilted></_>
    <_>
      <rects>
        <_>
          8 6 15 12 -1.</_>
        <_>
          13 10 5 4 9.</_></rects>
      <tilted>0</tilted></_>
    <_>
      <rects>
        <_>
          8 7 3 3 -1.</_>
        <_>
          9 8 1 1 9.</_></rects>
      <tilted>0</tilted></_>
    <_>
      <rects>
        <_>
          8 8 12 9 -1.</_>
        <_>
          12 11 4 3 9.</_></rects>
      <tilted>0</tilted></_>
    <_>
      <rects>
        <_>
          8 12 6 3 -1.</_>
        <_>
          8 13 6 1 3.</_></rects>
      <tilted>0</tilted></_>
    <_>
      <rects>
        <_>
          9 8 10 6 -1.</_>
        <_>
          9 8 5 3 2.</_>
        <_>
          14 11 5 3 2.</_></rects>
      <tilted>0</tilted></_>
    <_>
      <rects>
        <_>
          9 14 6 2 -1.</_>
        <_>
          9 14 3 1 2.</_>
        <_>
          12 15 3 1 2.</_></rects>
      <tilted>0</tilted></_>
    <_>
      <rects>
        <_>
          10 3 6 18 -1.</_>
        <_>
          12 9 2 6 9.</_></rects>
      <tilted>0</tilted></_>
    <_>
      <rects>
        <_>
          10 7 6 6 -1.</_>
        <_>
          10 7 6 3 2.</_></rects>
      <tilted>1</tilted></_>
    <_>
      <rects>
        <_>
          10 14 4 1 -1.</_>
        <_>
          11 14 2 1 2.</_></rects>
      <tilted>0</tilted></_>
    <_>
      <rects>
        <_>
          11 4 6 15 -1.</_>
        <_>
          13 9 2 5 9.</_></rects>
      <tilted>0</tilted></_>
    <_>
      <rects>
        <_>
          11 6 3 8 -1.</_>
        <_>
          11 6 3 4 2.</_></rects>
      <tilted>1</tilted></_>
    <_>
      <rects>
        <_>
          11 13 2 4 -1.</_>
        <_>
          11 14 2 2 2.</_></rects>
      <tilted>0</tilted></_>
    <_>
      <rects>
        <_>
          11 13 3 4 -1.</_>
        <_>
          11 14 3 2 2.</_></rects>
      <tilted>0</tilted></_>
    <_>
      <rects>
        <_>
          11 16 3 1 -1.</_>
        <_>
          12 16 1 1 3.</_></rects>
      <tilted>0</tilted></_>
    <_>
      <rects>
        <_>
          12 0 5 2 -1.</_>
        <_>
          12 0 5 1 2.</_></rects>
      <tilted>1</tilted></_>
    <_>
      <rects>
        <_>
          12 8 4 1 -1.</_>
        <_>
          12 8 2 1 2.</_></rects>
      <tilted>1</tilted></_>
    <_>
      <rects>
        <_>
          12 8 4 6 -1.</_>
        <_>
          12 8 4 3 2.</_></rects>
      <tilted>1</tilted></_>
    <_>
      <rects>
        <_>
          12 10 3 3 -1.</_>
        <_>
          13 11 1 1 9.</_></rects>
      <tilted>0</tilted></_>
    <_>
      <rects>
        <_>
          12 10 4 1 -1.</_>
        <_>
          14 10 2 1 2.</_></rects>
      <tilted>0</tilted></_>
    <_>
      <rects>
        <_>
          13 10 3 6 -1.</_>
        <_>
          14 12 1 2 9.</_></rects>
      <tilted>0</tilted></_>
    <_>
      <rects>
        <_>
          14 7 1 2 -1.</_>
        <_>
          14 8 1 1 2.</_></rects>
      <tilted>0</tilted></_>
    <_>
      <rects>
        <_>
          14 10 1 4 -1.</_>
        <_>
          14 10 1 2 2.</_></rects>
      <tilted>1</tilted></_>
    <_>
      <rects>
        <_>
          14 10 4 3 -1.</_>
        <_>
          15 10 2 3 2.</_></rects>
      <tilted>0</tilted></_>
    <_>
      <rects>
        <_>
          15 4 6 10 -1.</_>
        <_>
          15 4 6 5 2.</_></rects>
      <tilted>1</tilted></_>
    <_>
      <rects>
        <_>
          15 6 3 10 -1.</_>
        <_>
          15 6 3 5 2.</_></rects>
      <tilted>1</tilted></_>
    <_>
      <rects>
        <_>
          15 6 4 8 -1.</_>
        <_>
          15 6 4 4 2.</_></rects>
      <tilted>1</tilted></_>
    <_>
      <rects>
        <_>
          15 7 2 8 -1.</_>
        <_>
          15 7 1 8 2.</_></rects>
      <tilted>1</tilted></_>
    <_>
      <rects>
        <_>
          15 8 4 1 -1.</_>
        <_>
          15 8 2 1 2.</_></rects>
      <tilted>1</tilted></_>
    <_>
      <rects>
        <_>
          15 8 2 8 -1.</_>
        <_>
          15 8 2 4 2.</_></rects>
      <tilted>1</tilted></_>
    <_>
      <rects>
        <_>
          15 9 3 1 -1.</_>
        <_>
          16 10 1 1 3.</_></rects>
      <tilted>1</tilted></_>
    <_>
      <rects>
        <_>
          15 14 2 2 -1.</_>
        <_>
          15 15 2 1 2.</_></rects>
      <tilted>0</tilted></_>
    <_>
      <rects>
        <_>
          16 7 2 8 -1.</_>
        <_>
          16 7 1 8 2.</_></rects>
      <tilted>1</tilted></_>
    <_>
      <rects>
        <_>
          16 9 3 3 -1.</_>
        <_>
          17 10 1 1 9.</_></rects>
      <tilted>0</tilted></_>
    <_>
      <rects>
        <_>
          16 11 2 2 -1.</_>
        <_>
          16 11 1 2 2.</_></rects>
      <tilted>1</tilted></_>
    <_>
      <rects>
        <_>
          17 7 1 6 -1.</_>
        <_>
          17 10 1 3 2.</_></rects>
      <tilted>0</tilted></_>
    <_>
      <rects>
        <_>
          17 7 2 6 -1.</_>
        <_>
          17 10 2 3 2.</_></rects>
      <tilted>0</tilted></_>
    <_>
      <rects>
        <_>
          17 8 3 8 -1.</_>
        <_>
          17 12 3 4 2.</_></rects>
      <tilted>0</tilted></_>
    <_>
      <rects>
        <_>
          17 9 2 1 -1.</_>
        <_>
          18 9 1 1 2.</_></rects>
      <tilted>0</tilted></_>
    <_>
      <rects>
        <_>
          17 9 1 3 -1.</_>
        <_>
          17 10 1 1 3.</_></rects>
      <tilted>0</tilted></_>
    <_>
      <rects>
        <_>
          18 3 3 18 -1.</_>
        <_>
          19 9 1 6 9.</_></rects>
      <tilted>0</tilted></_>
    <_>
      <rects>
        <_>
          18 6 5 8 -1.</_>
        <_>
          18 6 5 4 2.</_></rects>
      <tilted>1</tilted></_>
    <_>
      <rects>
        <_>
          18 9 2 2 -1.</_>
        <_>
          18 9 2 1 2.</_></rects>
      <tilted>1</tilted></_>
    <_>
      <rects>
        <_>
          19 8 2 2 -1.</_>
        <_>
          19 8 2 1 2.</_></rects>
      <tilted>1</tilted></_></features></cascade>
</opencv_storage>
