<?xml version="1.0"?>
<opencv_storage>
<stage8>
  <maxWeakCount>9</maxWeakCount>
  <stageThreshold>-7.3032099008560181e-01</stageThreshold>
  <weakClassifiers>
    <_>
      <internalNodes>
        0 -1 125815 -2.3899375810287893e-04</internalNodes>
      <leafValues>
        -4.7368422150611877e-01 7.8637200593948364e-01</leafValues></_>
    <_>
      <internalNodes>
        0 -1 93118 -7.5930054299533367e-04</internalNodes>
      <leafValues>
        -6.3280683755874634e-01 4.9740439653396606e-01</leafValues></_>
    <_>
      <internalNodes>
        0 -1 249545 3.7941522896289825e-04</internalNodes>
      <leafValues>
        3.5088172554969788e-01 -6.8333601951599121e-01</leafValues></_>
    <_>
      <internalNodes>
        0 -1 179511 6.1804195865988731e-04</internalNodes>
      <leafValues>
        2.9279330372810364e-01 -7.8808736801147461e-01</leafValues></_>
    <_>
      <internalNodes>
        0 -1 135597 -5.5546476505696774e-04</internalNodes>
      <leafValues>
        -7.4559128284454346e-01 2.7601385116577148e-01</leafValues></_>
    <_>
      <internalNodes>
        0 -1 38915 1.7310835421085358e-01</internalNodes>
      <leafValues>
        2.5027424097061157e-01 -7.8070992231369019e-01</leafValues></_>
    <_>
      <internalNodes>
        0 -1 159625 -5.0219848752021790e-02</internalNodes>
      <leafValues>
        -6.9904816150665283e-01 3.2253876328468323e-01</leafValues></_>
    <_>
      <internalNodes>
        0 -1 135176 4.4864933937788010e-02</internalNodes>
      <leafValues>
        2.7459776401519775e-01 -6.6306942701339722e-01</leafValues></_>
    <_>
      <internalNodes>
        0 -1 188847 5.1613163668662310e-04</internalNodes>
      <leafValues>
        3.0255272984504700e-01 -6.2570172548294067e-01</leafValues></_></weakClassifiers></stage8>
</opencv_storage>
