<?xml version="1.0"?>
<opencv_storage>
<cascade>
  <stageType>BOOST</stageType>
  <featureType>HAAR</featureType>
  <height>24</height>
  <width>24</width>
  <stageParams>
    <boostType>GAB</boostType>
    <minHitRate>9.9900001287460327e-01</minHitRate>
    <maxFalseAlarm>5.0000000000000000e-01</maxFalseAlarm>
    <weightTrimRate>9.4999999999999996e-01</weightTrimRate>
    <maxDepth>1</maxDepth>
    <maxWeakCount>100</maxWeakCount></stageParams>
  <featureParams>
    <maxCatCount>0</maxCatCount>
    <featSize>1</featSize>
    <mode>ALL</mode></featureParams>
  <stageNum>10</stageNum>
  <stages>
    <!-- stage 0 -->
    <_>
      <maxWeakCount>5</maxWeakCount>
      <stageThreshold>-1.2364592552185059e+00</stageThreshold>
      <weakClassifiers>
        <_>
          <internalNodes>
            0 -1 33 6.5914646256715059e-04</internalNodes>
          <leafValues>
            -4.3023255467414856e-01 -9.8437500000000000e-01</leafValues></_>
        <_>
          <internalNodes>
            0 -1 8 1.0950526222586632e-02</internalNodes>
          <leafValues>
            8.5267551243305206e-02 -9.7563505172729492e-01</leafValues></_>
        <_>
          <internalNodes>
            0 -1 15 -1.9673118367791176e-03</internalNodes>
          <leafValues>
            -8.6813902854919434e-01 2.5337710976600647e-01</leafValues></_>
        <_>
          <internalNodes>
            0 -1 17 2.9880861984565854e-04</internalNodes>
          <leafValues>
            3.1623467803001404e-01 -8.3732998371124268e-01</leafValues></_>
        <_>
          <internalNodes>
            0 -1 18 -3.3706640824675560e-03</internalNodes>
          <leafValues>
            -9.7336483001708984e-01 2.4660106003284454e-01</leafValues></_></weakClassifiers></_>
    <!-- stage 1 -->
    <_>
      <maxWeakCount>5</maxWeakCount>
      <stageThreshold>-1.5194876194000244e+00</stageThreshold>
      <weakClassifiers>
        <_>
          <internalNodes>
            0 -1 33 6.4659584313631058e-04</internalNodes>
          <leafValues>
            -2.2834645211696625e-01 -9.8843932151794434e-01</leafValues></_>
        <_>
          <internalNodes>
            0 -1 40 6.4105342607945204e-04</internalNodes>
          <leafValues>
            1.3318629562854767e-01 -8.7922650575637817e-01</leafValues></_>
        <_>
          <internalNodes>
            0 -1 38 -1.9485570373944938e-04</internalNodes>
          <leafValues>
            -9.7403872013092041e-01 1.8950349092483521e-01</leafValues></_>
        <_>
          <internalNodes>
            0 -1 38 2.5338446721434593e-04</internalNodes>
          <leafValues>
            3.6821421980857849e-01 -8.1576746702194214e-01</leafValues></_>
        <_>
          <internalNodes>
            0 -1 16 -1.3289467897266150e-03</internalNodes>
          <leafValues>
            -9.5384299755096436e-01 2.1434938907623291e-01</leafValues></_></weakClassifiers></_>
    <!-- stage 2 -->
    <_>
      <maxWeakCount>4</maxWeakCount>
      <stageThreshold>-1.5496748685836792e+00</stageThreshold>
      <weakClassifiers>
        <_>
          <internalNodes>
            0 -1 27 1.1534502846188843e-04</internalNodes>
          <leafValues>
            -2.8163266181945801e-01 -9.3239438533782959e-01</leafValues></_>
        <_>
          <internalNodes>
            0 -1 10 1.3046137988567352e-02</internalNodes>
          <leafValues>
            6.7220635712146759e-02 -9.6080958843231201e-01</leafValues></_>
        <_>
          <internalNodes>
            0 -1 20 -7.7372370287775993e-04</internalNodes>
          <leafValues>
            -9.2220133543014526e-01 2.0070147514343262e-01</leafValues></_>
        <_>
          <internalNodes>
            0 -1 12 3.4866918576881289e-04</internalNodes>
          <leafValues>
            2.2632005810737610e-01 -8.8520264625549316e-01</leafValues></_></weakClassifiers></_>
    <!-- stage 3 -->
    <_>
      <maxWeakCount>4</maxWeakCount>
      <stageThreshold>-1.4726610183715820e+00</stageThreshold>
      <weakClassifiers>
        <_>
          <internalNodes>
            0 -1 37 2.5345219182781875e-04</internalNodes>
          <leafValues>
            -3.1835207343101501e-01 -9.4594591856002808e-01</leafValues></_>
        <_>
          <internalNodes>
            0 -1 24 -2.9944939888082445e-04</internalNodes>
          <leafValues>
            -9.2209976911544800e-01 7.7338688075542450e-02</leafValues></_>
        <_>
          <internalNodes>
            0 -1 30 -5.6565604172646999e-03</internalNodes>
          <leafValues>
            -9.4347506761550903e-01 1.9209867715835571e-01</leafValues></_>
        <_>
          <internalNodes>
            0 -1 32 2.7888910844922066e-03</internalNodes>
          <leafValues>
            2.0328600704669952e-01 -9.3368750810623169e-01</leafValues></_></weakClassifiers></_>
    <!-- stage 4 -->
    <_>
      <maxWeakCount>3</maxWeakCount>
      <stageThreshold>-1.2812650203704834e+00</stageThreshold>
      <weakClassifiers>
        <_>
          <internalNodes>
            0 -1 2 -2.8807274065911770e-03</internalNodes>
          <leafValues>
            6.6666668653488159e-01 -7.3684209585189819e-01</leafValues></_>
        <_>
          <internalNodes>
            0 -1 4 1.9104124605655670e-01</internalNodes>
          <leafValues>
            1.0641967505216599e-01 -9.9072110652923584e-01</leafValues></_>
        <_>
          <internalNodes>
            0 -1 42 -1.0784070938825607e-02</internalNodes>
          <leafValues>
            -9.5721065998077393e-01 1.6593369841575623e-01</leafValues></_></weakClassifiers></_>
    <!-- stage 5 -->
    <_>
      <maxWeakCount>5</maxWeakCount>
      <stageThreshold>-1.4852753877639771e+00</stageThreshold>
      <weakClassifiers>
        <_>
          <internalNodes>
            0 -1 26 -7.4085872620344162e-03</internalNodes>
          <leafValues>
            5.0000000000000000e-01 -7.3239433765411377e-01</leafValues></_>
        <_>
          <internalNodes>
            0 -1 21 1.1394421570003033e-02</internalNodes>
          <leafValues>
            1.9373822212219238e-01 -9.0862184762954712e-01</leafValues></_>
        <_>
          <internalNodes>
            0 -1 22 2.7935850084759295e-05</internalNodes>
          <leafValues>
            -5.5567443370819092e-01 3.2608291506767273e-01</leafValues></_>
        <_>
          <internalNodes>
            0 -1 19 1.5675831818953156e-03</internalNodes>
          <leafValues>
            2.1503153443336487e-01 -9.6070998907089233e-01</leafValues></_>
        <_>
          <internalNodes>
            0 -1 25 -6.2535433098673820e-03</internalNodes>
          <leafValues>
            6.5408694744110107e-01 -3.8537368178367615e-01</leafValues></_></weakClassifiers></_>
    <!-- stage 6 -->
    <_>
      <maxWeakCount>6</maxWeakCount>
      <stageThreshold>-1.5119625329971313e+00</stageThreshold>
      <weakClassifiers>
        <_>
          <internalNodes>
            0 -1 39 -1.7211750149726868e-02</internalNodes>
          <leafValues>
            3.2075470685958862e-01 -7.6234000921249390e-01</leafValues></_>
        <_>
          <internalNodes>
            0 -1 9 3.0341825913637877e-04</internalNodes>
          <leafValues>
            3.2127406448125839e-02 -9.8498433828353882e-01</leafValues></_>
        <_>
          <internalNodes>
            0 -1 12 -2.8535089222714305e-04</internalNodes>
          <leafValues>
            -9.0191757678985596e-01 1.5687146782875061e-01</leafValues></_>
        <_>
          <internalNodes>
            0 -1 3 -2.4179231375455856e-02</internalNodes>
          <leafValues>
            -5.8454412221908569e-01 4.0579780936241150e-01</leafValues></_>
        <_>
          <internalNodes>
            0 -1 35 1.9718054682016373e-04</internalNodes>
          <leafValues>
            -5.2458775043487549e-01 4.3047195672988892e-01</leafValues></_>
        <_>
          <internalNodes>
            0 -1 5 -8.4678822895511985e-04</internalNodes>
          <leafValues>
            -8.1983137130737305e-01 2.5359115004539490e-01</leafValues></_></weakClassifiers></_>
    <!-- stage 7 -->
    <_>
      <maxWeakCount>6</maxWeakCount>
      <stageThreshold>-1.3672609329223633e+00</stageThreshold>
      <weakClassifiers>
        <_>
          <internalNodes>
            0 -1 6 -8.3673112094402313e-03</internalNodes>
          <leafValues>
            2.9629629850387573e-01 -7.6190477609634399e-01</leafValues></_>
        <_>
          <internalNodes>
            0 -1 36 3.0414188586291857e-05</internalNodes>
          <leafValues>
            -6.6095459461212158e-01 2.5474983453750610e-01</leafValues></_>
        <_>
          <internalNodes>
            0 -1 7 -1.5080810990184546e-03</internalNodes>
          <leafValues>
            -9.1460257768630981e-01 2.3889456689357758e-01</leafValues></_>
        <_>
          <internalNodes>
            0 -1 44 1.6012447304092348e-04</internalNodes>
          <leafValues>
            2.1552026271820068e-01 -8.0755710601806641e-01</leafValues></_>
        <_>
          <internalNodes>
            0 -1 29 1.1337946355342865e-01</internalNodes>
          <leafValues>
            2.6398819684982300e-01 -7.6587867736816406e-01</leafValues></_>
        <_>
          <internalNodes>
            0 -1 34 -3.6940630525350571e-03</internalNodes>
          <leafValues>
            4.6636378765106201e-01 -4.2501190304756165e-01</leafValues></_></weakClassifiers></_>
    <!-- stage 8 -->
    <_>
      <maxWeakCount>5</maxWeakCount>
      <stageThreshold>-1.1455377340316772e+00</stageThreshold>
      <weakClassifiers>
        <_>
          <internalNodes>
            0 -1 0 -8.2924729213118553e-03</internalNodes>
          <leafValues>
            3.9534884691238403e-01 -7.4865347146987915e-01</leafValues></_>
        <_>
          <internalNodes>
            0 -1 23 -5.7442346587777138e-04</internalNodes>
          <leafValues>
            -8.0273628234863281e-01 1.4220793545246124e-01</leafValues></_>
        <_>
          <internalNodes>
            0 -1 28 -3.9842091500759125e-03</internalNodes>
          <leafValues>
            7.5794976949691772e-01 -3.3743625879287720e-01</leafValues></_>
        <_>
          <internalNodes>
            0 -1 43 2.5095656746998429e-04</internalNodes>
          <leafValues>
            3.2684957981109619e-01 -8.1995159387588501e-01</leafValues></_>
        <_>
          <internalNodes>
            0 -1 31 3.4685912542045116e-03</internalNodes>
          <leafValues>
            -3.2772260904312134e-01 6.1829572916030884e-01</leafValues></_></weakClassifiers></_>
    <!-- stage 9 -->
    <_>
      <maxWeakCount>5</maxWeakCount>
      <stageThreshold>-1.0311642885208130e+00</stageThreshold>
      <weakClassifiers>
        <_>
          <internalNodes>
            0 -1 1 -5.3194272331893444e-03</internalNodes>
          <leafValues>
            5.1020407676696777e-01 -7.7132487297058105e-01</leafValues></_>
        <_>
          <internalNodes>
            0 -1 14 -1.5406226157210767e-04</internalNodes>
          <leafValues>
            -8.9211612939834595e-01 1.5284579992294312e-01</leafValues></_>
        <_>
          <internalNodes>
            0 -1 13 -4.0503899799659848e-04</internalNodes>
          <leafValues>
            -9.4492971897125244e-01 1.8343056738376617e-01</leafValues></_>
        <_>
          <internalNodes>
            0 -1 11 -1.7582302098162472e-04</internalNodes>
          <leafValues>
            -8.8828051090240479e-01 2.4639756977558136e-01</leafValues></_>
        <_>
          <internalNodes>
            0 -1 41 -5.2431691437959671e-04</internalNodes>
          <leafValues>
            -8.2804161310195923e-01 2.9216474294662476e-01</leafValues></_></weakClassifiers></_></stages>
  <features>
    <_>
      <rects>
        <_>
          0 3 2 16 -1.</_>
        <_>
          0 3 1 8 2.</_>
        <_>
          1 11 1 8 2.</_></rects>
      <tilted>0</tilted></_>
    <_>
      <rects>
        <_>
          0 6 2 14 -1.</_>
        <_>
          0 6 1 7 2.</_>
        <_>
          1 13 1 7 2.</_></rects>
      <tilted>0</tilted></_>
    <_>
      <rects>
        <_>
          0 7 3 1 -1.</_>
        <_>
          1 7 1 1 3.</_></rects>
      <tilted>0</tilted></_>
    <_>
      <rects>
        <_>
          0 9 24 10 -1.</_>
        <_>
          0 14 24 5 2.</_></rects>
      <tilted>0</tilted></_>
    <_>
      <rects>
        <_>
          4 3 18 18 -1.</_>
        <_>
          10 9 6 6 9.</_></rects>
      <tilted>0</tilted></_>
    <_>
      <rects>
        <_>
          4 10 2 4 -1.</_>
        <_>
          4 12 2 2 2.</_></rects>
      <tilted>0</tilted></_>
    <_>
      <rects>
        <_>
          5 0 2 6 -1.</_>
        <_>
          5 2 2 2 3.</_></rects>
      <tilted>0</tilted></_>
    <_>
      <rects>
        <_>
          5 7 6 3 -1.</_>
        <_>
          7 8 2 1 9.</_></rects>
      <tilted>0</tilted></_>
    <_>
      <rects>
        <_>
          5 12 9 6 -1.</_>
        <_>
          8 14 3 2 9.</_></rects>
      <tilted>0</tilted></_>
    <_>
      <rects>
        <_>
          5 15 3 2 -1.</_>
        <_>
          6 15 1 2 3.</_></rects>
      <tilted>0</tilted></_>
    <_>
      <rects>
        <_>
          6 6 6 12 -1.</_>
        <_>
          8 10 2 4 9.</_></rects>
      <tilted>0</tilted></_>
    <_>
      <rects>
        <_>
          7 5 1 2 -1.</_>
        <_>
          7 6 1 1 2.</_></rects>
      <tilted>0</tilted></_>
    <_>
      <rects>
        <_>
          7 7 1 2 -1.</_>
        <_>
          7 7 1 1 2.</_></rects>
      <tilted>1</tilted></_>
    <_>
      <rects>
        <_>
          7 7 2 2 -1.</_>
        <_>
          7 7 1 2 2.</_></rects>
      <tilted>1</tilted></_>
    <_>
      <rects>
        <_>
          7 8 1 2 -1.</_>
        <_>
          7 9 1 1 2.</_></rects>
      <tilted>0</tilted></_>
    <_>
      <rects>
        <_>
          7 12 3 6 -1.</_>
        <_>
          8 14 1 2 9.</_></rects>
      <tilted>0</tilted></_>
    <_>
      <rects>
        <_>
          8 9 3 6 -1.</_>
        <_>
          9 11 1 2 9.</_></rects>
      <tilted>0</tilted></_>
    <_>
      <rects>
        <_>
          8 13 3 1 -1.</_>
        <_>
          9 14 1 1 3.</_></rects>
      <tilted>1</tilted></_>
    <_>
      <rects>
        <_>
          9 9 6 6 -1.</_>
        <_>
          11 11 2 2 9.</_></rects>
      <tilted>0</tilted></_>
    <_>
      <rects>
        <_>
          9 11 10 1 -1.</_>
        <_>
          14 11 5 1 2.</_></rects>
      <tilted>0</tilted></_>
    <_>
      <rects>
        <_>
          9 12 5 4 -1.</_>
        <_>
          9 13 5 2 2.</_></rects>
      <tilted>0</tilted></_>
    <_>
      <rects>
        <_>
          10 5 6 8 -1.</_>
        <_>
          10 5 3 8 2.</_></rects>
      <tilted>1</tilted></_>
    <_>
      <rects>
        <_>
          10 11 9 2 -1.</_>
        <_>
          13 11 3 2 3.</_></rects>
      <tilted>0</tilted></_>
    <_>
      <rects>
        <_>
          10 11 9 3 -1.</_>
        <_>
          10 12 9 1 3.</_></rects>
      <tilted>0</tilted></_>
    <_>
      <rects>
        <_>
          10 14 3 2 -1.</_>
        <_>
          10 15 3 1 2.</_></rects>
      <tilted>0</tilted></_>
    <_>
      <rects>
        <_>
          11 0 2 12 -1.</_>
        <_>
          11 4 2 4 3.</_></rects>
      <tilted>0</tilted></_>
    <_>
      <rects>
        <_>
          11 1 8 2 -1.</_>
        <_>
          11 1 4 1 2.</_>
        <_>
          15 2 4 1 2.</_></rects>
      <tilted>0</tilted></_>
    <_>
      <rects>
        <_>
          11 10 2 4 -1.</_>
        <_>
          11 11 2 2 2.</_></rects>
      <tilted>0</tilted></_>
    <_>
      <rects>
        <_>
          11 19 3 4 -1.</_>
        <_>
          11 20 3 2 2.</_></rects>
      <tilted>0</tilted></_>
    <_>
      <rects>
        <_>
          12 4 12 18 -1.</_>
        <_>
          16 10 4 6 9.</_></rects>
      <tilted>0</tilted></_>
    <_>
      <rects>
        <_>
          12 7 2 6 -1.</_>
        <_>
          12 7 2 3 2.</_></rects>
      <tilted>1</tilted></_>
    <_>
      <rects>
        <_>
          12 15 4 8 -1.</_>
        <_>
          12 15 2 4 2.</_>
        <_>
          14 19 2 4 2.</_></rects>
      <tilted>0</tilted></_>
    <_>
      <rects>
        <_>
          13 8 3 4 -1.</_>
        <_>
          13 8 3 2 2.</_></rects>
      <tilted>1</tilted></_>
    <_>
      <rects>
        <_>
          13 11 1 4 -1.</_>
        <_>
          13 11 1 2 2.</_></rects>
      <tilted>1</tilted></_>
    <_>
      <rects>
        <_>
          14 1 8 6 -1.</_>
        <_>
          14 1 4 3 2.</_>
        <_>
          18 4 4 3 2.</_></rects>
      <tilted>0</tilted></_>
    <_>
      <rects>
        <_>
          14 8 6 2 -1.</_>
        <_>
          14 8 3 2 2.</_></rects>
      <tilted>1</tilted></_>
    <_>
      <rects>
        <_>
          14 9 1 4 -1.</_>
        <_>
          14 9 1 2 2.</_></rects>
      <tilted>1</tilted></_>
    <_>
      <rects>
        <_>
          14 10 1 6 -1.</_>
        <_>
          12 12 1 2 3.</_></rects>
      <tilted>1</tilted></_>
    <_>
      <rects>
        <_>
          14 11 4 2 -1.</_>
        <_>
          15 11 2 2 2.</_></rects>
      <tilted>0</tilted></_>
    <_>
      <rects>
        <_>
          15 0 6 3 -1.</_>
        <_>
          17 1 2 1 9.</_></rects>
      <tilted>0</tilted></_>
    <_>
      <rects>
        <_>
          15 9 1 6 -1.</_>
        <_>
          13 11 1 2 3.</_></rects>
      <tilted>1</tilted></_>
    <_>
      <rects>
        <_>
          16 7 3 2 -1.</_>
        <_>
          16 8 3 1 2.</_></rects>
      <tilted>0</tilted></_>
    <_>
      <rects>
        <_>
          16 9 4 6 -1.</_>
        <_>
          16 9 4 3 2.</_></rects>
      <tilted>1</tilted></_>
    <_>
      <rects>
        <_>
          18 8 1 2 -1.</_>
        <_>
          18 8 1 1 2.</_></rects>
      <tilted>1</tilted></_>
    <_>
      <rects>
        <_>
          20 8 1 2 -1.</_>
        <_>
          20 8 1 1 2.</_></rects>
      <tilted>1</tilted></_></features></cascade>
</opencv_storage>
