<?xml version="1.0"?>
<opencv_storage>
<stage6>
  <maxWeakCount>6</maxWeakCount>
  <stageThreshold>-1.5119625329971313e+00</stageThreshold>
  <weakClassifiers>
    <_>
      <internalNodes>
        0 -1 214806 -1.7211750149726868e-02</internalNodes>
      <leafValues>
        3.2075470685958862e-01 -7.6234000921249390e-01</leafValues></_>
    <_>
      <internalNodes>
        0 -1 96156 3.0341825913637877e-04</internalNodes>
      <leafValues>
        3.2127406448125839e-02 -9.8498433828353882e-01</leafValues></_>
    <_>
      <internalNodes>
        0 -1 121048 -2.8535089222714305e-04</internalNodes>
      <leafValues>
        -9.0191757678985596e-01 1.5687146782875061e-01</leafValues></_>
    <_>
      <internalNodes>
        0 -1 11550 -2.4179231375455856e-02</internalNodes>
      <leafValues>
        -5.8454412221908569e-01 4.0579780936241150e-01</leafValues></_>
    <_>
      <internalNodes>
        0 -1 210596 1.9718054682016373e-04</internalNodes>
      <leafValues>
        -5.2458775043487549e-01 4.3047195672988892e-01</leafValues></_>
    <_>
      <internalNodes>
        0 -1 77571 -8.4678822895511985e-04</internalNodes>
      <leafValues>
        -8.1983137130737305e-01 2.5359115004539490e-01</leafValues></_></weakClassifiers></stage6>
</opencv_storage>
