<?xml version="1.0"?>
<opencv_storage>
<stage0>
  <maxWeakCount>5</maxWeakCount>
  <stageThreshold>-1.2364592552185059e+00</stageThreshold>
  <weakClassifiers>
    <_>
      <internalNodes>
        0 -1 201615 6.5914646256715059e-04</internalNodes>
      <leafValues>
        -4.3023255467414856e-01 -9.8437500000000000e-01</leafValues></_>
    <_>
      <internalNodes>
        0 -1 94649 1.0950526222586632e-02</internalNodes>
      <leafValues>
        8.5267551243305206e-02 -9.7563505172729492e-01</leafValues></_>
    <_>
      <internalNodes>
        0 -1 124739 -1.9673118367791176e-03</internalNodes>
      <leafValues>
        -8.6813902854919434e-01 2.5337710976600647e-01</leafValues></_>
    <_>
      <internalNodes>
        0 -1 139898 2.9880861984565854e-04</internalNodes>
      <leafValues>
        3.1623467803001404e-01 -8.3732998371124268e-01</leafValues></_>
    <_>
      <internalNodes>
        0 -1 151368 -3.3706640824675560e-03</internalNodes>
      <leafValues>
        -9.7336483001708984e-01 2.4660106003284454e-01</leafValues></_></weakClassifiers></stage0>
</opencv_storage>
