<?xml version="1.0"?>
<opencv_storage>
<stage5>
  <maxWeakCount>5</maxWeakCount>
  <stageThreshold>-1.4852753877639771e+00</stageThreshold>
  <weakClassifiers>
    <_>
      <internalNodes>
        0 -1 170814 -7.4085872620344162e-03</internalNodes>
      <leafValues>
        5.0000000000000000e-01 -7.3239433765411377e-01</leafValues></_>
    <_>
      <internalNodes>
        0 -1 161655 1.1394421570003033e-02</internalNodes>
      <leafValues>
        1.9373822212219238e-01 -9.0862184762954712e-01</leafValues></_>
    <_>
      <internalNodes>
        0 -1 166029 2.7935850084759295e-05</internalNodes>
      <leafValues>
        -5.5567443370819092e-01 3.2608291506767273e-01</leafValues></_>
    <_>
      <internalNodes>
        0 -1 152918 1.5675831818953156e-03</internalNodes>
      <leafValues>
        2.1503153443336487e-01 -9.6070998907089233e-01</leafValues></_>
    <_>
      <internalNodes>
        0 -1 169528 -6.2535433098673820e-03</internalNodes>
      <leafValues>
        6.5408694744110107e-01 -3.8537368178367615e-01</leafValues></_></weakClassifiers></stage5>
</opencv_storage>
